{"learner":{"attributes":{"best_iteration":"9","best_ntree_limit":"10","scikit_learn":"{\"n_estimators\": 10, \"objective\": \"reg:squarederror\", \"max_depth\": 5, \"max_leaves\": null, \"max_bin\": null, \"grow_policy\": null, \"learning_rate\": 0.1, \"verbosity\": null, \"booster\": null, \"tree_method\": null, \"gamma\": null, \"min_child_weight\": null, \"max_delta_step\": null, \"subsample\": null, \"sampling_method\": null, \"colsample_bytree\": 0.3, \"colsample_bylevel\": null, \"colsample_bynode\": null, \"reg_alpha\": null, \"reg_lambda\": null, \"scale_pos_weight\": null, \"base_score\": null, \"missing\": NaN, \"num_parallel_tree\": null, \"random_state\": null, \"n_jobs\": null, \"monotone_constraints\": null, \"interaction_constraints\": null, \"importance_type\": null, \"gpu_id\": null, \"validate_parameters\": null, \"predictor\": null, \"enable_categorical\": false, \"max_cat_to_onehot\": null, \"eval_metric\": null, \"early_stopping_rounds\": null, \"callbacks\": null, \"kwargs\": {\"alpha\": 10}, \"_estimator_type\": \"regressor\"}"},"feature_names":["isBasicEconomy","isRefundable","isNonStop","days_before_flight","day","num_legs","all_same","departure_hour","departure_dow_idx","startingAirport_encoded","destinationAirport_encoded","segmentsAirlineName_encoded"],"feature_types":["int","int","int","int","int","int","int","int","int","int","int","int"],"gradient_booster":{"model":{"gbtree_model_param":{"num_parallel_tree":"1","num_trees":"10","size_leaf_vector":"0"},"tree_info":[0,0,0,0,0,0,0,0,0,0],"trees":[{"base_weights":[3.950915E2,3.781109E2,6.3874316E2,3.6765402E2,4.6264352E2,5.8524713E2,6.78469E2,3.1239862E2,3.7849838E2,4.333075E2,4.8347113E2,5.747308E2,7.1811584E2,3.8356027E2,2.5780908E2,3.8909427E2,3.5489758E2,3.421168E2,4.0740613E2,2.0957831E2,2.7807745E2,3.667773E2,4.2890692E2,3.084661E2,3.8395312E2],"categories":[],"categories_nodes":[],"categories_segments":[],"categories_sizes":[],"default_left":[1,1,1,1,1,1,0,1,1,0,0,0,0,1,1,1,1,0,0,0,0,0,0,0,0],"id":0,"left_children":[1,3,5,7,9,11,-1,13,15,-1,-1,-1,-1,17,19,21,23,-1,-1,-1,-1,-1,-1,-1,-1],"loss_changes":[6.594995E7,1.30464E7,1.802592E6,7.855744E6,7.85216E5,2.04528E5,0E0,8.406048E6,2.637568E6,0E0,0E0,0E0,0E0,7.90976E5,1.151952E6,6.649472E6,4.542496E6,0E0,0E0,0E0,0E0,0E0,0E0,0E0,0E0],"parents":[2147483647,0,0,1,1,2,2,3,3,4,4,5,5,7,7,8,8,13,13,14,14,15,15,16,16],"right_children":[2,4,6,8,10,12,-1,14,16,-1,-1,-1,-1,18,20,22,24,-1,-1,-1,-1,-1,-1,-1,-1],"split_conditions":[2.5E0,1.35E1,8.5E0,1.5E0,1.45E1,3.5E0,6.78469E1,5E-1,9.5E0,4.333075E1,4.8347115E1,5.747308E1,7.1811584E1,1.5E0,1.5E0,6.5E0,1.05E1,3.421168E1,4.0740612E1,2.095783E1,2.7807745E1,3.667773E1,4.2890694E1,3.084661E1,3.8395313E1],"split_indices":[5,10,10,10,10,5,0,10,10,0,0,0,0,5,5,10,10,0,0,0,0,0,0,0,0],"split_type":[0,0,0,0,0,0,0,0,0,0,0,0,0,0,0,0,0,0,0,0,0,0,0,0,0],"sum_hessian":[1.6E4,1.496E4,1.04E3,1.3318E4,1.642E3,4.5E2,5.9E2,2.19E3,1.1128E4,6.91E2,9.51E2,4.22E2,2.8E1,9.48E2,1.242E3,7.669E3,3.459E3,3.52E2,5.96E2,3.71E2,8.71E2,4.921E3,2.748E3,1.336E3,2.123E3],"tree_param":{"num_deleted":"0","num_feature":"12","num_nodes":"25","size_leaf_vector":"0"}},{"base_weights":[3.5561816E2,6.6109515E2,3.4459845E2,7.104762E2,3.2971497E2,3.136813E2,3.5894568E2,2.900359E2,3.6797195E2,3.840954E2,2.905598E2,4.0369763E2,3.649242E2,3.0568283E2,2.8062494E2,3.98318E2,4.440585E2,3.0584393E2,3.7584747E2,1.8300743E2,2.8445096E2],"categories":[],"categories_nodes":[],"categories_segments":[],"categories_sizes":[],"default_left":[1,1,1,0,0,1,1,0,0,1,1,1,1,0,1,0,0,0,0,0,0],"id":1,"left_children":[1,3,5,-1,-1,7,9,-1,-1,11,13,15,17,-1,19,-1,-1,-1,-1,-1,-1],"loss_changes":[5.3625984E7,8.85368E6,6.732032E6,0E0,0E0,6.18208E6,1.8014336E7,0E0,0E0,2.74048E6,3.34912E5,6.39808E5,2.399008E6,0E0,5.87904E5,0E0,0E0,0E0,0E0,0E0,0E0],"parents":[2147483647,0,0,1,1,2,2,5,5,6,6,9,9,10,10,11,11,12,12,14,14],"right_children":[2,4,6,-1,-1,8,10,-1,-1,12,14,16,18,-1,20,-1,-1,-1,-1,-1,-1],"split_conditions":[5E-1,5E-1,1.5E0,7.104762E1,3.2971497E1,5E-1,5E-1,2.900359E1,3.6797195E1,7.5E0,5.5E0,5.5E0,1.05E1,3.0568283E1,6.5E0,3.98318E1,4.440585E1,3.0584394E1,3.7584747E1,1.8300743E1,2.8445097E1],"split_indices":[11,2,11,0,0,2,2,0,0,11,11,11,11,0,11,0,0,0,0,0,0],"split_type":[0,0,0,0,0,0,0,0,0,0,0,0,0,0,0,0,0,0,0,0,0],"sum_hessian":[1.6E4,5.55E2,1.5445E4,4.82E2,7.3E1,4.903E3,1.0542E4,3.42E3,1.483E3,7.704E3,2.838E3,3.799E3,3.905E3,1.113E3,1.725E3,3.362E3,4.37E2,6.14E2,3.291E3,6.7E1,1.658E3],"tree_param":{"num_deleted":"0","num_feature":"12","num_nodes":"21","size_leaf_vector":"0"}},{"base_weights":[3.2008194E2,2.8825623E2,3.5133035E2,2.7179907E2,3.4966687E2,3.0547308E2,3.7770966E2,2.2260199E2,2.81838E2,4.9051782E2,3.2652884E2,3.0186758E2,5.42137E2,3.9818088E2,3.4334253E2,2.8207318E2,1.8114075E2,2.9795114E2,2.3214714E2,5.497805E2,4.379413E2,2.839249E2,4.0247974E2,4.10847E2,2.9465567E2,5.9019183E2,4.1242184E2,3.8370377E2,5.3789014E2,2.4090123E2,3.9349185E2,2.5525304E2,3.695364E2,1.3914766E2,2.125418E2,2.7487613E2,3.362157E2,1.899847E2,2.8611636E2,4.8748862E2,6.072034E2,3.5800418E2,4.7230176E2,3.2543024E2,2.533682E2,7.190615E2,3.8619833E2,3.1231497E2,4.778571E2,3.4346866E2,2.828343E2,1.6029524E2,5.994633E2,4.1014816E2,3.529097E2,5.143602E2,6.850853E2,2.1397939E2,3.4042712E2,3.8303195E2,5.05073E2],"categories":[],"categories_nodes":[],"categories_segments":[],"categories_sizes":[],"default_left":[1,1,1,1,1,1,1,1,1,1,1,1,1,1,1,1,1,1,1,1,1,1,1,1,1,1,0,1,1,1,1,0,0,0,0,0,0,0,0,0,0,0,0,0,0,0,0,0,0,0,0,0,0,0,0,0,0,0,0,0,0],"id":2,"left_children":[1,3,5,7,9,11,13,15,17,19,21,23,25,27,29,31,33,35,37,39,41,43,45,47,49,51,-1,53,55,57,59,-1,-1,-1,-1,-1,-1,-1,-1,-1,-1,-1,-1,-1,-1,-1,-1,-1,-1,-1,-1,-1,-1,-1,-1,-1,-1,-1,-1,-1,-1],"loss_changes":[1.5805312E7,7.91616E6,9.638784E6,3.024416E6,5.284E6,2.346816E6,3.456576E6,2.57276E6,4.085856E6,4.78456E5,4.538416E6,2.159008E6,1.4603E4,6.25872E6,9.752304E6,9.22188E5,7.98962E5,3.362656E6,2.846656E6,7.2208E4,1.76932E5,1.086176E6,2.365752E6,1.018126E6,1.473648E6,1.1899E4,0E0,2.212448E6,6.67744E5,1.617684E6,1.298592E6,0E0,0E0,0E0,0E0,0E0,0E0,0E0,0E0,0E0,0E0,0E0,0E0,0E0,0E0,0E0,0E0,0E0,0E0,0E0,0E0,0E0,0E0,0E0,0E0,0E0,0E0,0E0,0E0,0E0,0E0],"parents":[2147483647,0,0,1,1,2,2,3,3,4,4,5,5,6,6,7,7,8,8,9,9,10,10,11,11,12,12,13,13,14,14,15,15,16,16,17,17,18,18,19,19,20,20,21,21,22,22,23,23,24,24,25,25,27,27,28,28,29,29,30,30],"right_children":[2,4,6,8,10,12,14,16,18,20,22,24,26,28,30,32,34,36,38,40,42,44,46,48,50,52,-1,54,56,58,60,-1,-1,-1,-1,-1,-1,-1,-1,-1,-1,-1,-1,-1,-1,-1,-1,-1,-1,-1,-1,-1,-1,-1,-1,-1,-1,-1,-1,-1,-1],"split_conditions":[5.5E0,1.15E1,4.5E0,1.5E0,1.25E1,2.25E1,1.25E1,5E-1,9.5E0,2.5E0,1.45E1,6.5E0,1.25E1,1.15E1,1.35E1,4.5E0,2.5E0,6.5E0,1.05E1,5E-1,3.5E0,1.35E1,6.5E0,1.5E0,5E-1,8.5E0,4.1242184E1,1.55E1,2.25E1,1.15E1,2.15E1,2.5525305E1,3.695364E1,1.3914766E1,2.1254179E1,2.7487614E1,3.362157E1,1.899847E1,2.8611637E1,4.8748863E1,6.0720345E1,3.580042E1,4.7230175E1,3.2543026E1,2.533682E1,7.190615E1,3.8619835E1,3.1231497E1,4.778571E1,3.4346867E1,2.828343E1,1.6029524E1,5.994633E1,4.1014816E1,3.529097E1,5.1436024E1,6.850854E1,2.139794E1,3.4042713E1,3.8303196E1,5.05073E1],"split_indices":[9,10,10,10,10,7,9,10,10,9,10,7,9,9,9,9,9,10,10,9,9,7,7,10,10,9,0,7,7,10,7,0,0,0,0,0,0,0,0,0,0,0,0,0,0,0,0,0,0,0,0,0,0,0,0,0,0,0,0,0,0],"split_type":[0,0,0,0,0,0,0,0,0,0,0,0,0,0,0,0,0,0,0,0,0,0,0,0,0,0,0,0,0,0,0,0,0,0,0,0,0,0,0,0,0,0,0,0,0,0,0,0,0,0,0,0,0,0,0,0,0,0,0,0,0],"sum_hessian":[1.6E4,7.932E3,8.068E3,6.26E3,1.672E3,2.951E3,5.117E3,1.065E3,5.195E3,2.33E2,1.439E3,2.909E3,4.2E1,3.2E3,1.917E3,4.35E2,6.3E2,3.919E3,1.276E3,1.05E2,1.28E2,9.25E2,5.14E2,1.77E2,2.732E3,2.8E1,1.4E1,2.903E3,2.97E2,6.32E2,1.285E3,3.36E2,9.9E1,2.72E2,3.58E2,2.45E3,1.469E3,7.19E2,5.57E2,5.5E1,5E1,4.2E1,8.6E1,3.88E2,5.37E2,2.3E1,4.91E2,7.4E1,1.03E2,5.27E2,2.205E3,1E0,2.7E1,1.555E3,1.348E3,2.6E2,3.7E1,5E2,1.32E2,1.179E3,1.06E2],"tree_param":{"num_deleted":"0","num_feature":"12","num_nodes":"61","size_leaf_vector":"0"}},{"base_weights":[2.8814853E2,2.6009573E2,3.125516E2,2.3231204E2,2.725194E2,4.0164667E2,3.0619748E2,2.9098883E2,1.8621593E2,3.3704178E2,2.5984024E2,2.8543362E2,3.3754117E2,2.8690646E2,5.0038483E2,4.0155774E2,1.837132E2,5.2132495E2,3.136968E2,3.4564694E2,2.552614E2,2.8231363E2,4.6401627E2,4.6131363E2,3.1794275E2,3.0733435E2,2.4939613E2,1.9530544E2,1.7909238E2,4.5318997E2,5.8667554E2,3.0610324E2,5.0504697E2,3.637921E2,2.6663293E2,2.5382254E2,3.908518E2,3.0813138E2,2.579832E2,2.3758313E2,7.401804E2,4.6746573E2,3.6949167E2,2.6040115E2,3.514218E2],"categories":[],"categories_nodes":[],"categories_segments":[],"categories_sizes":[],"default_left":[1,1,1,1,1,0,1,1,1,1,1,1,1,1,0,0,1,1,1,1,1,1,1,1,1,0,0,0,0,0,0,0,0,0,0,0,0,0,0,0,0,0,0,0,0],"id":3,"left_children":[1,3,5,7,9,-1,11,13,15,17,19,21,23,25,-1,-1,27,29,31,33,35,37,39,41,43,-1,-1,-1,-1,-1,-1,-1,-1,-1,-1,-1,-1,-1,-1,-1,-1,-1,-1,-1,-1],"loss_changes":[1.0866816E7,2.5032E6,4.711424E6,6.186368E6,4.113056E6,0E0,5.095488E6,7.1536E5,6.18844E5,3.44616E6,1.596E6,2.542112E6,7.55216E6,6.81736E5,0E0,0E0,3E4,1.37822E5,9.25616E5,2.04948E5,6.91904E5,2.886656E6,4.879518E6,6.2936E4,5.192352E6,0E0,0E0,0E0,0E0,0E0,0E0,0E0,0E0,0E0,0E0,0E0,0E0,0E0,0E0,0E0,0E0,0E0,0E0,0E0,0E0],"parents":[2147483647,0,0,1,1,2,2,3,3,4,4,6,6,7,7,8,8,9,9,10,10,11,11,12,12,13,13,16,16,17,17,18,18,19,19,20,20,21,21,22,22,23,23,24,24],"right_children":[2,4,6,8,10,-1,12,14,16,18,20,22,24,26,-1,-1,28,30,32,34,36,38,40,42,44,-1,-1,-1,-1,-1,-1,-1,-1,-1,-1,-1,-1,-1,-1,-1,-1,-1,-1,-1,-1],"split_conditions":[6.5E0,1.5E0,7.5E0,5E-1,2.5E0,4.016467E1,1.15E1,2.25E1,5.5E0,7.5E0,6.5E0,2.25E1,1.25E1,1.65E1,5.0038483E1,4.0155773E1,1.05E1,6.5E0,2.15E1,5.5E0,2.25E1,9.5E0,9.5E0,2.15E1,1.35E1,3.0733435E1,2.4939613E1,1.9530544E1,1.7909239E1,4.5318996E1,5.8667553E1,3.0610325E1,5.0504696E1,3.637921E1,2.6663294E1,2.5382254E1,3.9085182E1,3.0813139E1,2.5798319E1,2.3758314E1,7.401804E1,4.6746574E1,3.694917E1,2.6040115E1,3.514218E1],"split_indices":[10,10,10,10,10,0,10,7,7,7,7,7,10,7,0,0,7,7,7,10,7,10,10,7,10,0,0,0,0,0,0,0,0,0,0,0,0,0,0,0,0,0,0,0,0],"split_type":[0,0,0,0,0,0,0,0,0,0,0,0,0,0,0,0,0,0,0,0,0,0,0,0,0,0,0,0,0,0,0,0,0,0,0,0,0,0,0,0,0,0,0,0,0],"sum_hessian":[1.6E4,7.449E3,8.551E3,2.308E3,5.141E3,5.65E2,7.986E3,1.013E3,1.295E3,8.4E2,4.301E3,4.81E3,3.176E3,9.96E2,1.7E1,1.3E1,1.282E3,9.2E1,7.48E2,2.14E2,4.087E3,4.73E3,8E1,4.31E2,2.745E3,6.4E2,3.56E2,3.53E2,9.29E2,4.9E1,4.3E1,7.22E2,2.6E1,1.71E2,4.3E1,4.047E3,4E1,2.289E3,2.441E3,4.5E1,3.5E1,4E2,3.1E1,1.013E3,1.732E3],"tree_param":{"num_deleted":"0","num_feature":"12","num_nodes":"45","size_leaf_vector":"0"}},{"base_weights":[2.5938727E2,5.2296936E2,2.4988182E2,5.5065E2,1.0756366E2,2.6518048E2,1.7788222E2,5.426191E2,6.9393256E2,1.5484634E2,6.14952E1,2.6896857E2,6.334305E1,1.856295E2,5.9493904E1,2.8640768E2,2.51482E2,-0E0,6.3905544E1,1.5341893E2,2.0734247E2,-1.5267711E1,6.2418827E1,2.5034508E2,3.0444144E2,2.3451494E2,2.5817697E2,7.223914E1,5.822327E1,2.2537888E2,1.9439171E2,6.5278465E1,4.943906E1],"categories":[],"categories_nodes":[],"categories_segments":[],"categories_sizes":[],"default_left":[1,1,1,1,1,1,1,0,0,0,0,1,1,1,1,1,1,0,1,0,1,0,1,0,0,0,0,0,0,0,0,0,0],"id":4,"left_children":[1,3,5,7,9,11,13,-1,-1,-1,-1,15,17,19,21,23,25,-1,27,-1,29,-1,31,-1,-1,-1,-1,-1,-1,-1,-1,-1,-1],"loss_changes":[3.995149E7,6.327472E6,1.6962112E7,2.10608E5,6.673091E4,9.718016E6,2.47208E6,0E0,0E0,0E0,0E0,3.735104E6,8.7243125E3,1.743128E6,3.8161438E4,3.984192E6,6.44576E5,0E0,5.570125E3,0E0,3.06104E5,0E0,1.6385625E3,0E0,0E0,0E0,0E0,0E0,0E0,0E0,0E0,0E0,0E0],"parents":[2147483647,0,0,1,1,2,2,3,3,4,4,5,5,6,6,11,11,12,12,13,13,14,14,15,15,16,16,18,18,20,20,22,22],"right_children":[2,4,6,8,10,12,14,-1,-1,-1,-1,16,18,20,22,24,26,-1,28,-1,30,-1,32,-1,-1,-1,-1,-1,-1,-1,-1,-1,-1],"split_conditions":[5E-1,5E-1,2.5E0,2.5E0,2.5E0,5E-1,5E-1,5.426191E1,6.939326E1,1.5484634E1,6.1495204E0,1.5E0,3E0,1.5E0,3E0,1.5E0,1.5E0,-0E0,1.5E0,1.5341893E1,8.5E0,-1.5267711E0,8.5E0,2.5034508E1,3.0444143E1,2.3451494E1,2.5817698E1,7.2239146E0,5.822327E0,2.2537888E1,1.943917E1,6.527847E0,4.9439063E0],"split_indices":[11,0,3,3,3,0,0,0,0,0,0,3,11,11,11,11,11,0,3,0,11,0,11,0,0,0,0,0,0,0,0,0,0],"split_type":[0,0,0,0,0,0,0,0,0,0,0,0,0,0,0,0,0,0,0,0,0,0,0,0,0,0,0,0,0,0,0,0,0],"sum_hessian":[1.6E4,5.55E2,1.5445E4,5.2E2,3.5E1,1.2736E4,2.709E3,4.97E2,2.3E1,1.6E1,1.9E1,1.2501E4,2.35E2,2.542E3,1.67E2,6.251E3,6.25E3,2E0,2.33E2,1.027E3,1.515E3,6E0,1.61E2,2.089E3,4.162E3,1.779E3,4.471E3,8.9E1,1.44E2,6.26E2,8.89E2,1.28E2,3.3E1],"tree_param":{"num_deleted":"0","num_feature":"12","num_nodes":"33","size_leaf_vector":"0"}},{"base_weights":[2.3346996E2,4.7093912E2,2.2490617E2,5.1536914E2,1.7444402E2,2.0157146E2,2.3573787E2,6.3043726E2,4.9093765E2,1.9896625E2,1.4571332E2,1.8060956E2,2.4975142E2,2.5769943E2,1.7604799E2,4.6462634E2,9.11387E2,4.7104312E2,6.188169E2,2.1239706E1,1.5176074E2,2.251404E2,1.7639435E2,2.9728577E2,2.0828041E2,2.7444766E2,2.4133716E2,1.9234135E2,1.6213382E2,7.6635156E2,4.1702264E2,4.9550314E2,4.0127744E2,1.3178491E2,1.9593439E2,1.7484373E2,2.0596759E2,3.3848697E2,2.73766E2,2.2419621E2,1.6581079E2,3.7716754E2,2.7252838E2,1.8965923E2,2.509151E2,1.7781017E2,1.9992563E2,1.8498328E2,1.474302E2],"categories":[],"categories_nodes":[],"categories_segments":[],"categories_sizes":[],"default_left":[1,1,1,1,1,1,1,1,1,0,1,1,1,1,1,1,0,1,0,0,1,0,1,1,1,1,1,1,1,0,0,0,0,0,0,0,0,0,0,0,0,0,0,0,0,0,0,0,0],"id":5,"left_children":[1,3,5,7,9,11,13,15,17,-1,19,21,23,25,27,29,-1,31,-1,-1,33,-1,35,37,39,41,43,45,47,-1,-1,-1,-1,-1,-1,-1,-1,-1,-1,-1,-1,-1,-1,-1,-1,-1,-1,-1,-1],"loss_changes":[3.2427328E7,7.227544E6,3.85216E6,1.037128E6,1.969725E4,4.903344E6,1.3770944E7,3.336132E6,7.2288E5,0E0,2.3651E4,5.98416E5,2.858432E6,2.040096E6,6.08896E5,4.29832E5,0E0,3.94584E5,0E0,0E0,2.6681875E3,0E0,1.03712E5,5.68884E5,4.96972E5,6.39872E5,1.88136E6,1.04164E5,4.86128E5,0E0,0E0,0E0,0E0,0E0,0E0,0E0,0E0,0E0,0E0,0E0,0E0,0E0,0E0,0E0,0E0,0E0,0E0,0E0,0E0],"parents":[2147483647,0,0,1,1,2,2,3,3,4,4,5,5,6,6,7,7,8,8,10,10,11,11,12,12,13,13,14,14,15,15,17,17,20,20,22,22,23,23,24,24,25,25,26,26,27,27,28,28],"right_children":[2,4,6,8,10,12,14,16,18,-1,20,22,24,26,28,30,-1,32,-1,-1,34,-1,36,38,40,42,44,46,48,-1,-1,-1,-1,-1,-1,-1,-1,-1,-1,-1,-1,-1,-1,-1,-1,-1,-1,-1,-1],"split_conditions":[5E-1,5E-1,1.5E0,6.5E0,1.15E1,5E-1,5E-1,5.5E0,2.15E1,1.9896626E1,1.25E1,8.5E0,1.25E1,7.5E0,1.25E1,2.5E0,9.11387E1,1.85E1,6.188169E1,2.1239707E0,2.15E1,2.251404E1,2.05E1,7.5E0,1.85E1,5.5E0,1.05E1,7.5E0,5.5E0,7.6635155E1,4.1702267E1,4.9550316E1,4.0127743E1,1.3178492E1,1.959344E1,1.7484373E1,2.059676E1,3.3848698E1,2.73766E1,2.2419622E1,1.658108E1,3.7716755E1,2.7252838E1,1.8965923E1,2.509151E1,1.7781017E1,1.9992563E1,1.8498327E1,1.4743021E1],"split_indices":[11,2,11,7,7,2,2,7,7,0,7,7,7,11,7,7,0,7,0,0,7,0,7,7,7,7,11,7,11,0,0,0,0,0,0,0,0,0,0,0,0,0,0,0,0,0,0,0,0],"split_type":[0,0,0,0,0,0,0,0,0,0,0,0,0,0,0,0,0,0,0,0,0,0,0,0,0,0,0,0,0,0,0,0,0,0,0,0,0,0,0,0,0,0,0,0,0,0,0,0,0],"sum_hessian":[1.6E4,5.55E2,1.5445E4,4.82E2,7.3E1,4.903E3,1.0542E4,8E1,4.02E2,3.6E1,3.7E1,3.42E3,1.483E3,7.704E3,2.838E3,5.2E1,2.8E1,3.52E2,5E1,2E0,3.5E1,2.91E2,3.129E3,6.88E2,7.95E2,3.799E3,3.905E3,1.301E3,1.537E3,5E0,4.7E1,2.56E2,9.6E1,2.7E1,8E0,2.98E3,1.49E2,2.45E2,4.43E2,5.75E2,2.2E2,6.6E1,3.733E3,6.14E2,3.291E3,4.55E2,8.46E2,5.97E2,9.4E2],"tree_param":{"num_deleted":"0","num_feature":"12","num_nodes":"49","size_leaf_vector":"0"}},{"base_weights":[2.1017175E2,1.9703664E2,3.98735E2,2.1039822E2,1.3375212E2,4.1822644E2,2.7231915E2,1.8509099E2,2.2160039E2,1.5440967E2,1.2752037E2,4.1426947E2,5.0140784E2,2.6207318E2,4.310524E2,2.0648454E2,1.6504617E2,2.3397394E2,2.0909421E2],"categories":[],"categories_nodes":[],"categories_segments":[],"categories_sizes":[],"default_left":[1,1,1,1,1,1,1,1,1,0,0,0,0,0,0,0,0,0,0],"id":6,"left_children":[1,3,5,7,9,11,13,15,17,-1,-1,-1,-1,-1,-1,-1,-1,-1,-1],"loss_changes":[3.954675E7,1.2619136E7,2.444272E6,3.456384E6,3.13608E5,7.9344E4,1.11047E5,1.59004E6,1.270656E6,0E0,0E0,0E0,0E0,0E0,0E0,0E0,0E0,0E0,0E0],"parents":[2147483647,0,0,1,1,2,2,3,3,4,4,5,5,6,6,7,7,8,8],"right_children":[2,4,6,8,10,12,14,16,18,-1,-1,-1,-1,-1,-1,-1,-1,-1,-1],"split_conditions":[2.5E0,1.85E1,1.85E1,1.5E0,1.5E0,3.5E0,3.5E0,1.75E1,1.75E1,1.5440967E1,1.2752037E1,4.142695E1,5.0140785E1,2.620732E1,4.310524E1,2.0648455E1,1.6504618E1,2.3397394E1,2.0909422E1],"split_indices":[5,4,4,5,5,5,5,4,4,0,0,0,0,0,0,0,0,0,0],"split_type":[0,0,0,0,0,0,0,0,0,0,0,0,0,0,0,0,0,0,0],"sum_hessian":[1.6E4,1.496E4,1.04E3,1.235E4,2.61E3,8.99E2,1.41E2,3.795E3,8.555E3,5.99E2,2.011E3,8.64E2,3.5E1,1.35E2,6E0,1.831E3,1.964E3,4.291E3,4.264E3],"tree_param":{"num_deleted":"0","num_feature":"12","num_nodes":"19","size_leaf_vector":"0"}},{"base_weights":[1.8917204E2,1.7011708E2,2.1632855E2,1.8795786E2,1.26895355E2,2.7831918E2,2.0936191E2,2.044161E2,1.4854996E2,1.23459984E2,1.3899443E2,3.0015048E2,2.480931E2,2.231971E2,1.701323E2,2.009114E2,3.3851028E2,1.6164316E2,1.3024948E2,1.8772325E2,1.2174395E2,9.824845E1,1.4654079E2,3.2588937E2,2.597674E2,2.1687532E2,2.8332895E2,2.2140695E2,3.2863232E2,2.1801573E2,1.502928E2,3.0102032E2,1.9604907E2,1.6637987E2,1.5381012E2,1.2534541E2,1.7548013E2,1.3978178E2,2.1369263E2,1.2033507E2,1.424313E2,1.2202988E2,8.862127E1,1.4780194E2,1.5565865E1,5.6251446E1,2.6619528E2,1.8896848E2,2.2314409E2,2.3648007E2,1.9879427E2,1.6239992E2,1.3180984E2],"categories":[],"categories_nodes":[],"categories_segments":[],"categories_sizes":[],"default_left":[1,1,1,1,1,1,1,1,1,1,1,1,1,1,1,1,0,1,1,1,1,1,1,0,1,0,0,1,0,1,1,0,0,0,0,0,0,0,0,0,0,0,0,0,0,0,0,0,0,0,0,0,0],"id":7,"left_children":[1,3,5,7,9,11,13,15,17,19,21,23,25,27,29,31,-1,33,35,37,39,41,43,-1,45,-1,-1,47,-1,49,51,-1,-1,-1,-1,-1,-1,-1,-1,-1,-1,-1,-1,-1,-1,-1,-1,-1,-1,-1,-1,-1,-1],"loss_changes":[8.239296E6,7.227616E6,2.784576E6,4.283728E6,9.46E4,3.57548E5,3.17768E6,2.132112E6,4.46864E5,2.11482E5,1.67645E5,3.04464E5,2.45948E5,7.48816E5,1.436972E6,2.16344E6,0E0,1.3542E4,1.57993E5,3.3825375E4,4.1438E4,9.287E3,7.9315E4,0E0,1.81953E5,0E0,0E0,1.96688E5,0E0,1.09056E5,2.21804E5,0E0,0E0,0E0,0E0,0E0,0E0,0E0,0E0,0E0,0E0,0E0,0E0,0E0,0E0,0E0,0E0,0E0,0E0,0E0,0E0,0E0,0E0],"parents":[2147483647,0,0,1,1,2,2,3,3,4,4,5,5,6,6,7,7,8,8,9,9,10,10,11,11,12,12,13,13,14,14,15,15,17,17,18,18,19,19,20,20,21,21,22,22,24,24,27,27,29,29,30,30],"right_children":[2,4,6,8,10,12,14,16,18,20,22,24,26,28,30,32,-1,34,36,38,40,42,44,-1,46,-1,-1,48,-1,50,52,-1,-1,-1,-1,-1,-1,-1,-1,-1,-1,-1,-1,-1,-1,-1,-1,-1,-1,-1,-1,-1,-1],"split_conditions":[3.5E0,5E-1,7.5E0,5E-1,5E-1,6.5E0,5E-1,2.25E1,1.45E1,6.5E0,7.5E0,5E-1,5E-1,2.25E1,1.15E1,6.5E0,3.385103E1,1.05E1,2.15E1,5.5E0,2.15E1,5.5E0,2.25E1,3.258894E1,3E0,2.1687532E1,2.8332895E1,8.5E0,3.286323E1,9.5E0,1.75E1,3.0102034E1,1.9604908E1,1.6637987E1,1.5381012E1,1.2534541E1,1.7548014E1,1.3978179E1,2.1369263E1,1.2033507E1,1.4243131E1,1.2202988E1,8.862127E0,1.4780194E1,1.5565865E0,5.6251445E0,2.6619528E1,1.8896849E1,2.231441E1,2.3648008E1,1.9879427E1,1.6239992E1,1.31809845E1],"split_indices":[8,8,7,6,6,7,6,7,7,7,7,6,6,7,7,7,0,7,7,7,7,7,7,0,7,0,0,7,0,7,7,0,0,0,0,0,0,0,0,0,0,0,0,0,0,0,0,0,0,0,0,0,0],"split_type":[0,0,0,0,0,0,0,0,0,0,0,0,0,0,0,0,0,0,0,0,0,0,0,0,0,0,0,0,0,0,0,0,0,0,0,0,0,0,0,0,0,0,0,0,0,0,0,0,0,0,0,0,0],"sum_hessian":[1.6E4,9.407E3,6.593E3,6.656E3,2.751E3,6.62E2,5.931E3,4.692E3,1.964E3,2.152E3,5.99E2,3.79E2,2.83E2,4.381E3,1.55E3,4.575E3,1.17E2,1.14E3,8.24E2,5.3E1,2.099E3,9.6E1,5.03E2,2.27E2,1.52E2,1.54E2,1.29E2,4.311E3,7E1,4.51E2,1.099E3,2.09E2,4.366E3,6.97E2,4.43E2,7.47E2,7.7E1,2.1E1,3.2E1,1.972E3,1.27E2,2.4E1,7.2E1,4.98E2,5E0,5E0,1.47E2,2.25E2,4.086E3,2.24E2,2.27E2,6.59E2,4.4E2],"tree_param":{"num_deleted":"0","num_feature":"12","num_nodes":"53","size_leaf_vector":"0"}},{"base_weights":[1.7028813E2,3.7636353E2,1.6285849E2,4.9210974E2,3.544091E2,1.4318985E2,1.7199081E2,3.5375522E2,6.930121E2,2.5845135E2,3.8087003E2,2.128449E2,1.3251323E2,1.8467532E2,1.6178958E2,6.46301E2,3.0960876E2,2.846452E2,1.7186743E2,3.6646033E2,4.4971283E2,2.2963332E2,1.9117776E2,1.4016295E2,1.2149874E2,2.5416832E2,1.8322803E2,1.3728888E2,1.7099025E2,3.960301E2,3.0337872E2,9.79634E1,2.3424178E2,1.4840073E2,1.3410513E2,1.176089E2,1.4828497E2,2.7319037E2,1.9989607E2,1.6359914E2,1.8599458E2,1.5191882E2,1.1744623E2,1.858109E2,1.594844E2],"categories":[],"categories_nodes":[],"categories_segments":[],"categories_sizes":[],"default_left":[1,1,1,1,1,1,1,1,0,1,1,1,1,1,1,0,0,0,0,1,0,1,0,1,1,1,1,1,1,0,0,0,0,0,0,0,0,0,0,0,0,0,0,0,0],"id":8,"left_children":[1,3,5,7,9,11,13,15,-1,17,19,21,23,25,27,-1,-1,-1,-1,29,-1,31,-1,33,35,37,39,41,43,-1,-1,-1,-1,-1,-1,-1,-1,-1,-1,-1,-1,-1,-1,-1,-1],"loss_changes":[2.4431904E7,1.23E6,2.746624E6,2.134812E6,1.0911E6,3.615344E6,1.33088E6,4.74828E5,0E0,1.8465E5,1.91104E5,1.88334E5,3.38864E5,4.2096E5,1.292624E6,0E0,0E0,0E0,0E0,4.49236E5,0E0,1.92784E5,0E0,1.02232E5,1.6245E5,3.667E4,2.15872E5,4.44812E5,6.9164E5,0E0,0E0,0E0,0E0,0E0,0E0,0E0,0E0,0E0,0E0,0E0,0E0,0E0,0E0,0E0,0E0],"parents":[2147483647,0,0,1,1,2,2,3,3,4,4,5,5,6,6,7,7,9,9,10,10,11,11,12,12,13,13,14,14,19,19,21,21,23,23,24,24,25,25,26,26,27,27,28,28],"right_children":[2,4,6,8,10,12,14,16,-1,18,20,22,24,26,28,-1,-1,-1,-1,30,-1,32,-1,34,36,38,40,42,44,-1,-1,-1,-1,-1,-1,-1,-1,-1,-1,-1,-1,-1,-1,-1,-1],"split_conditions":[5E-1,6.5E0,1.5E0,5.5E0,1.05E1,8.5E0,6.5E0,2.5E0,6.930121E1,9.5E0,2.15E1,7.5E0,1.65E1,5.5E0,1.05E1,6.4630104E1,3.0960876E1,2.8464521E1,1.7186743E1,1.85E1,4.4971283E1,3E0,1.9117777E1,1.25E1,2.05E1,5.5E0,8.5E0,9.5E0,1.35E1,3.960301E1,3.0337873E1,9.79634E0,2.3424177E1,1.4840073E1,1.3410514E1,1.176089E1,1.4828498E1,2.7319036E1,1.9989607E1,1.6359915E1,1.8599459E1,1.5191882E1,1.1744623E1,1.858109E1,1.5948441E1],"split_indices":[11,7,11,7,7,7,11,7,0,7,7,7,7,7,11,0,0,0,0,7,0,7,0,7,7,11,7,11,7,0,0,0,0,0,0,0,0,0,0,0,0,0,0,0,0],"split_type":[0,0,0,0,0,0,0,0,0,0,0,0,0,0,0,0,0,0,0,0,0,0,0,0,0,0,0,0,0,0,0,0,0,0,0,0,0,0,0,0,0,0,0,0,0],"sum_hessian":[1.6E4,5.55E2,1.5445E4,8.5E1,4.7E2,4.903E3,1.0542E4,5.2E1,3.3E1,1.04E2,3.66E2,6.49E2,4.254E3,4.691E3,5.851E3,5E0,4.7E1,7.8E1,2.6E1,3.08E2,5.8E1,3.6E2,2.89E2,2.503E3,1.751E3,9.2E1,4.599E3,1.602E3,4.249E3,2.06E2,1.02E2,1.3E1,3.47E2,1.05E3,1.453E3,1.534E3,2.17E2,6.5E1,2.7E1,5.76E2,4.023E3,9.18E2,6.84E2,1.85E3,2.399E3],"tree_param":{"num_deleted":"0","num_feature":"12","num_nodes":"45","size_leaf_vector":"0"}},{"base_weights":[1.532967E2,1.3146179E2,1.7474336E2,1.6224275E2,1.1661109E2,1.9437817E2,1.2393518E2,1.2139187E2,2.1739828E2,9.387889E1,1.26477936E2,2.1227266E2,1.6533951E2,1.7223494E2,8.919126E1,1.2960312E2,1.02274734E2,1.8995721E2,2.5518747E2,8.588305E1,1.24040924E2,1.3613887E2,9.5926575E1,1.88282E2,2.8370566E2,7.964956E1,1.9924698E2,1.4266452E2,1.907081E2,6.413992E1,1.5447937E2,1.5528995E2,1.24060814E2,9.128237E1,1.1108091E2,1.7493173E2,1.9540887E2,2.5247015E2,3.126252E2,1.8523169E2,2.0999889E2,1.785537E2,6.369168E1,2.2291301E2,1.6529663E2,1.0427346E2,6.7195573E0,1.7235724E2,1.4372194E2],"categories":[],"categories_nodes":[],"categories_segments":[],"categories_sizes":[],"default_left":[1,1,1,1,1,1,1,1,1,1,1,1,1,1,1,0,0,0,0,0,0,1,1,1,1,0,1,1,1,1,1,0,0,0,0,0,0,0,0,0,0,0,0,0,0,0,0,0,0],"id":9,"left_children":[1,3,5,7,9,11,13,15,17,19,21,23,25,27,29,-1,-1,-1,-1,-1,-1,31,33,35,37,-1,39,41,43,45,47,-1,-1,-1,-1,-1,-1,-1,-1,-1,-1,-1,-1,-1,-1,-1,-1,-1,-1],"loss_changes":[7.467008E6,3.604624E6,8.022432E6,5.781104E6,1.187024E6,2.984352E6,3.761156E6,2.1738E5,1.0836E6,3.79151E5,1.08584E6,6.104416E6,6.44034E6,4.83488E5,2.133753E6,0E0,0E0,0E0,0E0,0E0,0E0,6.33008E5,5.11785E4,2.18528E5,7.30216E5,0E0,1.97052E5,1.0235485E6,4.30654E5,2.1874475E6,4.188E4,0E0,0E0,0E0,0E0,0E0,0E0,0E0,0E0,0E0,0E0,0E0,0E0,0E0,0E0,0E0,0E0,0E0,0E0],"parents":[2147483647,0,0,1,1,2,2,3,3,4,4,5,5,6,6,7,7,8,8,9,9,10,10,11,11,12,12,13,13,14,14,21,21,22,22,23,23,24,24,26,26,27,27,28,28,29,29,30,30],"right_children":[2,4,6,8,10,12,14,16,18,20,22,24,26,28,30,-1,-1,-1,-1,-1,-1,32,34,36,38,-1,40,42,44,46,48,-1,-1,-1,-1,-1,-1,-1,-1,-1,-1,-1,-1,-1,-1,-1,-1,-1,-1],"split_conditions":[5.5E0,1.5E0,5E-1,5E-1,2.5E0,1.25E1,9.5E0,5E-1,5E-1,5E-1,5E-1,1.05E1,1.35E1,7.5E0,1.35E1,1.2960312E1,1.0227473E1,1.8995722E1,2.5518747E1,8.588305E0,1.2404093E1,3.5E0,4.5E0,7.5E0,1.15E1,7.964956E0,1.45E1,6.5E0,8.5E0,1.15E1,1.45E1,1.5528995E1,1.2406081E1,9.128238E0,1.1108091E1,1.7493174E1,1.9540888E1,2.5247015E1,3.1262522E1,1.8523169E1,2.099989E1,1.785537E1,6.3691683E0,2.2291302E1,1.6529663E1,1.0427346E1,6.7195576E-1,1.7235723E1,1.4372194E1],"split_indices":[9,9,2,9,9,9,9,2,2,2,2,9,9,9,9,0,0,0,0,0,0,9,9,9,9,0,9,9,9,9,9,0,0,0,0,0,0,0,0,0,0,0,0,0,0,0,0,0,0],"split_type":[0,0,0,0,0,0,0,0,0,0,0,0,0,0,0,0,0,0,0,0,0,0,0,0,0,0,0,0,0,0,0,0,0,0,0,0,0,0,0,0,0,0,0,0,0,0,0,0,0],"sum_hessian":[1.6E4,7.932E3,8.068E3,2.578E3,5.354E3,5.817E3,2.251E3,1.483E3,1.095E3,1.624E3,3.73E3,3.595E3,2.222E3,9.4E2,1.311E3,1.033E3,4.5E2,6.38E2,4.57E2,1.287E3,3.37E2,2.831E3,8.99E2,2.694E3,9.01E2,6.31E2,1.591E3,3.65E2,5.75E2,9.49E2,3.62E2,1.09E3,1.741E3,6.94E2,2.05E2,9.47E2,1.747E3,4.38E2,4.63E2,6.99E2,8.92E2,2.5E2,1.15E2,2.5E2,3.25E2,5.58E2,3.91E2,1.3E2,2.32E2],"tree_param":{"num_deleted":"0","num_feature":"12","num_nodes":"49","size_leaf_vector":"0"}}]},"name":"gbtree"},"learner_model_param":{"base_score":"5E-1","num_class":"0","num_feature":"12","num_target":"1"},"objective":{"name":"reg:squarederror","reg_loss_param":{"scale_pos_weight":"1"}}},"version":[1,6,2]}